{
  "topicId": "hog-features",
  "examples": [
    {
      "id": "hog-extraction-skimage",
      "title": "HOG Feature Extraction with scikit-image",
      "description": "Extract HOG features and visualize",
      "language": "python",
      "code": "from skimage.feature import hog\nfrom skimage import io, color, transform\nimport matplotlib.pyplot as plt\n\n# Load and preprocess image\nimage = io.imread('person.jpg')\nimage = color.rgb2gray(image)\nimage = transform.resize(image, (128, 64))  # Standard pedestrian size\n\n# Extract HOG features\nfeatures, hog_image = hog(\n    image,\n    orientations=9,        # Number of orientation bins\n    pixels_per_cell=(8, 8),\n    cells_per_block=(2, 2),\n    visualize=True,\n    block_norm='L2-Hys'    # L2 with hysteresis\n)\n\nprint(f\"Image shape: {image.shape}\")\nprint(f\"HOG feature vector length: {len(features)}\")\n\n# Verify dimension calculation\ncells_y = image.shape[0] // 8  # 128/8 = 16\ncells_x = image.shape[1] // 8  # 64/8 = 8\nblocks_y = cells_y - 1  # 15\nblocks_x = cells_x - 1  # 7\nfeatures_per_block = 2 * 2 * 9  # 36\nexpected = blocks_y * blocks_x * features_per_block\nprint(f\"Expected: {expected}, Actual: {len(features)}\")\n\n# Visualize\nfig, axes = plt.subplots(1, 2, figsize=(12, 6))\naxes[0].imshow(image, cmap='gray')\naxes[0].set_title('Original Image')\naxes[1].imshow(hog_image, cmap='gray')\naxes[1].set_title('HOG Visualization')\nplt.show()",
      "explanation": "scikit-image's hog function extracts HOG features. orientations=9 means 9 bins (0-180 degrees). pixels_per_cell and cells_per_block define the structure. visualize=True returns the HOG image for visualization.",
      "timeComplexity": "O(width * height)",
      "spaceComplexity": "O(num_features)"
    },
    {
      "id": "hog-pedestrian-detection",
      "title": "Pedestrian Detection with HOG + SVM",
      "description": "Use pre-trained HOG pedestrian detector",
      "language": "python",
      "code": "import cv2\nimport numpy as np\n\n# Initialize HOG descriptor with pre-trained pedestrian detector\nhog = cv2.HOGDescriptor()\nhog.setSVMDetector(cv2.HOGDescriptor_getDefaultPeopleDetector())\n\n# Load image\nimage = cv2.imread('street_scene.jpg')\n\n# Detect pedestrians\n# winStride: step size for sliding window\n# padding: padding around detection window\n# scale: scale factor for image pyramid\nboxes, weights = hog.detectMultiScale(\n    image,\n    winStride=(8, 8),\n    padding=(4, 4),\n    scale=1.05\n)\n\nprint(f\"Detected {len(boxes)} pedestrians\")\n\n# Draw bounding boxes\nfor i, (x, y, w, h) in enumerate(boxes):\n    cv2.rectangle(image, (x, y), (x + w, y + h), (0, 255, 0), 2)\n    cv2.putText(image, f\"{weights[i][0]:.2f}\", (x, y - 10),\n                cv2.FONT_HERSHEY_SIMPLEX, 0.5, (0, 255, 0), 2)\n\ncv2.imshow('Pedestrian Detection', image)\ncv2.waitKey(0)",
      "explanation": "OpenCV provides a pre-trained HOG+SVM pedestrian detector. detectMultiScale runs the detector at multiple scales using image pyramid. Returns bounding boxes and confidence weights.",
      "timeComplexity": "O(width * height * scales)",
      "spaceComplexity": "O(width * height)"
    },
    {
      "id": "hog-manual-implementation",
      "title": "HOG Implementation from Scratch",
      "description": "Understanding HOG by implementing key steps",
      "language": "python",
      "code": "import numpy as np\nimport cv2\n\ndef compute_hog(image, cell_size=8, block_size=2, bins=9):\n    \"\"\"Simplified HOG implementation for understanding.\"\"\"\n    \n    # 1. Compute gradients\n    gx = cv2.Sobel(image, cv2.CV_64F, 1, 0, ksize=1)\n    gy = cv2.Sobel(image, cv2.CV_64F, 0, 1, ksize=1)\n    \n    magnitude = np.sqrt(gx**2 + gy**2)\n    direction = np.arctan2(gy, gx) * 180 / np.pi\n    direction[direction < 0] += 180  # Convert to 0-180\n    \n    # 2. Create cell histograms\n    h, w = image.shape\n    cells_y = h // cell_size\n    cells_x = w // cell_size\n    \n    cell_histograms = np.zeros((cells_y, cells_x, bins))\n    bin_width = 180 / bins\n    \n    for cy in range(cells_y):\n        for cx in range(cells_x):\n            # Extract cell region\n            y1, y2 = cy * cell_size, (cy + 1) * cell_size\n            x1, x2 = cx * cell_size, (cx + 1) * cell_size\n            \n            cell_mag = magnitude[y1:y2, x1:x2]\n            cell_dir = direction[y1:y2, x1:x2]\n            \n            # Build histogram\n            for i in range(cell_size):\n                for j in range(cell_size):\n                    bin_idx = int(cell_dir[i, j] / bin_width) % bins\n                    cell_histograms[cy, cx, bin_idx] += cell_mag[i, j]\n    \n    # 3. Block normalization\n    blocks_y = cells_y - block_size + 1\n    blocks_x = cells_x - block_size + 1\n    \n    hog_features = []\n    for by in range(blocks_y):\n        for bx in range(blocks_x):\n            block = cell_histograms[by:by+block_size, bx:bx+block_size].flatten()\n            # L2 normalization\n            norm = np.sqrt(np.sum(block**2) + 1e-6)\n            block = block / norm\n            hog_features.extend(block)\n    \n    return np.array(hog_features)\n\n# Usage\nimage = cv2.imread('person.jpg', cv2.IMREAD_GRAYSCALE)\nimage = cv2.resize(image, (64, 128))\nfeatures = compute_hog(image)\nprint(f\"HOG feature vector: {len(features)} dimensions\")",
      "explanation": "This simplified implementation shows the core HOG steps: compute gradients, build cell histograms weighted by magnitude, normalize within blocks, and concatenate. Production implementations add optimizations.",
      "timeComplexity": "O(width * height)",
      "spaceComplexity": "O(cells * bins)"
    }
  ]
}
